digraph Tree {
0 [label="swi_range <= 8.4703\ngini = 0.749108650779\nsamples = 73", shape="box"] ;
1 [label="caar_std <= 188.9377\ngini = 0.569758948137\nsamples = 37", shape="box"] ;
0 -> 1 ;
2 [label="stdev_g <= 108.0000\ngini = 0.367768595041\nsamples = 22", shape="box"] ;
1 -> 2 ;
3 [label="toin_min <= 1373.1259\ngini = 0.56\nsamples = 5", shape="box"] ;
2 -> 3 ;
4 [label="gini = 0.0000\nsamples = 3\nvalue = [ 0.  0.  3.  0.]", shape="box"] ;
3 -> 4 ;
5 [label="aspe_8 <= 3.5000\ngini = 0.5\nsamples = 2", shape="box"] ;
3 -> 5 ;
6 [label="gini = 0.0000\nsamples = 1\nvalue = [ 0.  1.  0.  0.]", shape="box"] ;
5 -> 6 ;
7 [label="gini = 0.0000\nsamples = 1\nvalue = [ 1.  0.  0.  0.]", shape="box"] ;
5 -> 7 ;
8 [label="min_ndsm <= 4.1604\ngini = 0.110726643599\nsamples = 17", shape="box"] ;
2 -> 8 ;
9 [label="gini = 0.0000\nsamples = 16\nvalue = [  0.  16.   0.   0.]", shape="box"] ;
8 -> 9 ;
10 [label="gini = 0.0000\nsamples = 1\nvalue = [ 0.  0.  1.  0.]", shape="box"] ;
8 -> 10 ;
11 [label="mrvb_median <= 0.0683\ngini = 0.337777777778\nsamples = 15", shape="box"] ;
1 -> 11 ;
12 [label="flac_min <= 446.0000\ngini = 0.14201183432\nsamples = 13", shape="box"] ;
11 -> 12 ;
13 [label="gini = 0.0000\nsamples = 12\nvalue = [  0.   0.  12.   0.]", shape="box"] ;
12 -> 13 ;
14 [label="gini = 0.0000\nsamples = 1\nvalue = [ 1.  0.  0.  0.]", shape="box"] ;
12 -> 14 ;
15 [label="swi_range <= 7.6836\ngini = 0.5\nsamples = 2", shape="box"] ;
11 -> 15 ;
16 [label="gini = 0.0000\nsamples = 1\nvalue = [ 1.  0.  0.  0.]", shape="box"] ;
15 -> 16 ;
17 [label="gini = 0.0000\nsamples = 1\nvalue = [ 0.  1.  0.  0.]", shape="box"] ;
15 -> 17 ;
18 [label="max_ndsm <= 0.0138\ngini = 0.550925925926\nsamples = 36", shape="box"] ;
0 -> 18 ;
19 [label="gini = 0.0000\nsamples = 14\nvalue = [ 14.   0.   0.   0.]", shape="box"] ;
18 -> 19 ;
20 [label="difi_min <= 185.2607\ngini = 0.376033057851\nsamples = 22", shape="box"] ;
18 -> 20 ;
21 [label="mean_ndvi <= 0.4109\ngini = 0.197530864198\nsamples = 18", shape="box"] ;
20 -> 21 ;
22 [label="swi_std <= 10.7226\ngini = 0.444444444444\nsamples = 3", shape="box"] ;
21 -> 22 ;
23 [label="gini = 0.0000\nsamples = 1\nvalue = [ 0.  0.  0.  1.]", shape="box"] ;
22 -> 23 ;
24 [label="gini = 0.0000\nsamples = 2\nvalue = [ 0.  0.  2.  0.]", shape="box"] ;
22 -> 24 ;
25 [label="gini = 0.0000\nsamples = 15\nvalue = [  0.   0.   0.  15.]", shape="box"] ;
21 -> 25 ;
26 [label="stdev_g <= 165.5000\ngini = 0.375\nsamples = 4", shape="box"] ;
20 -> 26 ;
27 [label="gini = 0.0000\nsamples = 3\nvalue = [ 3.  0.  0.  0.]", shape="box"] ;
26 -> 27 ;
28 [label="gini = 0.0000\nsamples = 1\nvalue = [ 0.  0.  0.  1.]", shape="box"] ;
26 -> 28 ;
}
